{
    "proj.weight": [
        [
            -0.21614088118076324,
            -0.03534568473696709,
            0.3880947232246399,
            -0.22613318264484406
        ],
        [
            -0.04186173155903816,
            -0.195927694439888,
            0.45907479524612427,
            -0.21118655800819397
        ],
        [
            -0.08411811292171478,
            0.008783932775259018,
            0.04989727959036827,
            0.9261636137962341
        ]
    ],
    "network.0.weight": [
        [
            0.7434748411178589,
            -0.5703038573265076,
            -0.5375609993934631,
            0.1220870092511177
        ],
        [
            0.6705697178840637,
            -0.9037873148918152,
            -0.842465341091156,
            -0.11647196859121323
        ],
        [
            0.6921250224113464,
            0.30584484338760376,
            0.39997366070747375,
            1.0833195447921753
        ],
        [
            -0.2422853708267212,
            1.4381071329116821,
            0.08813157677650452,
            1.1646169424057007
        ],
        [
            -0.42549359798431396,
            -0.1956528127193451,
            -0.32904842495918274,
            -0.5366408824920654
        ],
        [
            -6.802623271942139,
            -0.24716128408908844,
            1.1390941143035889,
            -7.023373126983643
        ],
        [
            0.45837923884391785,
            -0.48004770278930664,
            -0.5987221002578735,
            0.05633467063307762
        ],
        [
            0.05739985778927803,
            -0.6511975526809692,
            1.3058465719223022,
            -0.45164236426353455
        ]
    ],
    "network.0.bias": [
        -0.005433667916804552,
        -0.274741530418396,
        -0.07440846413373947,
        -0.13438589870929718,
        0.02224123291671276,
        -0.06467930972576141,
        -0.21582293510437012,
        -0.2186221331357956
    ],
    "network.2.weight": [
        [
            0.8667065501213074,
            0.2624710202217102,
            0.1502709537744522,
            -0.2448788434267044,
            0.03714403510093689,
            -1.6249966621398926,
            0.14752662181854248,
            0.2929520308971405
        ],
        [
            -0.33880114555358887,
            -0.36017778515815735,
            -0.30314138531684875,
            -0.08080772310495377,
            0.10831023007631302,
            -0.018885819241404533,
            -0.05995596945285797,
            0.010696528479456902
        ],
        [
            0.050636038184165955,
            -0.3461017310619354,
            0.10036785155534744,
            0.3464054465293884,
            0.36979159712791443,
            0.2453409731388092,
            -0.15326882898807526,
            -0.23582932353019714
        ],
        [
            -0.514227569103241,
            -0.21536153554916382,
            1.0225257873535156,
            0.1307886391878128,
            -0.41465771198272705,
            -0.9368311166763306,
            -0.04244455695152283,
            -0.13772724568843842
        ],
        [
            -0.11766443401575089,
            0.268555611371994,
            -0.0080332700163126,
            -0.028481142595410347,
            -0.05012946203351021,
            -0.07261331379413605,
            -0.20106664299964905,
            0.04127439111471176
        ],
        [
            -0.1673797219991684,
            -0.31876397132873535,
            -0.1935034543275833,
            -0.14260903000831604,
            0.018876953050494194,
            0.01406359113752842,
            0.08611136674880981,
            -0.09654582291841507
        ],
        [
            0.3673918545246124,
            -0.11367057263851166,
            0.08775971829891205,
            -0.17997007071971893,
            0.0034560307394713163,
            -0.02544395998120308,
            -0.2065776288509369,
            -0.09553800523281097
        ],
        [
            -0.4659003019332886,
            -0.3979971706867218,
            0.23707391321659088,
            -0.2283487170934677,
            0.04684175178408623,
            0.3378155827522278,
            -0.3335219919681549,
            0.3211272954940796
        ]
    ],
    "network.2.bias": [
        0.06067264825105667,
        -0.11997728049755096,
        0.4483722448348999,
        -0.24571382999420166,
        -0.28302186727523804,
        -0.13039745390415192,
        0.18999040126800537,
        -0.15421544015407562
    ],
    "network.4.weight": [
        [
            -0.3369256556034088,
            -0.17710918188095093,
            0.39951854944229126,
            0.751854658126831,
            0.14747607707977295,
            -0.10445518791675568,
            0.4018460214138031,
            -0.25688856840133667
        ],
        [
            -0.351165235042572,
            0.055895961821079254,
            0.3975091278553009,
            0.7599207758903503,
            -0.3284165859222412,
            -0.09084605425596237,
            -0.10931017249822617,
            -0.4190898835659027
        ],
        [
            0.004143623169511557,
            0.059351518750190735,
            -0.02862279862165451,
            -0.0011256902944296598,
            -0.44168558716773987,
            -0.2781979739665985,
            0.07487279176712036,
            -0.02665601670742035
        ]
    ],
    "network.4.bias": [
        -0.14070498943328857,
        -0.1460888534784317,
        -0.1466335505247116
    ]
}
