{
    "network.0.weight": [
        [
            0.016849970445036888,
            0.7079286575317383,
            0.4260867238044739
        ],
        [
            0.14475321769714355,
            0.7478212118148804,
            0.11649815738201141
        ],
        [
            -3.1463096141815186,
            -1.4865942001342773,
            -3.2231273651123047
        ],
        [
            0.20733508467674255,
            0.26464515924453735,
            0.15616387128829956
        ],
        [
            0.4505932033061981,
            -1.480794906616211,
            0.3480735421180725
        ],
        [
            -1.4909899234771729,
            -0.48677295446395874,
            -1.62921142578125
        ],
        [
            -0.9388872981071472,
            -0.5807961225509644,
            -0.9818358421325684
        ],
        [
            0.955062985420227,
            0.1659802943468094,
            0.534522294998169
        ]
    ],
    "network.0.bias": [
        -0.5989750623703003,
        0.5446779131889343,
        0.22225914895534515,
        0.1648639589548111,
        -0.1275397688150406,
        -0.4858056902885437,
        -0.5071551203727722,
        0.2457093596458435
    ],
    "network.2.weight": [
        [
            -0.1837235689163208,
            0.16303801536560059,
            0.032648999243974686,
            0.21781297028064728,
            0.3298206925392151,
            0.00362684135325253,
            -0.004967066925019026,
            -0.637645959854126
        ],
        [
            0.322925329208374,
            -0.3716180920600891,
            -0.1594877988100052,
            -0.11243700236082077,
            0.012472506612539291,
            -0.1453845351934433,
            0.12239933013916016,
            -0.13371343910694122
        ],
        [
            0.3739616870880127,
            -0.14695413410663605,
            -1.0412569046020508,
            0.2082572877407074,
            0.19947698712348938,
            -0.39977577328681946,
            0.16518665850162506,
            0.5101786851882935
        ],
        [
            -0.03862215578556061,
            -0.18462228775024414,
            0.1664801388978958,
            0.44901326298713684,
            -0.24427971243858337,
            -0.2212066650390625,
            0.14998458325862885,
            -0.217691570520401
        ],
        [
            -0.5055040717124939,
            0.0735270157456398,
            -1.2562326192855835,
            -0.008639802224934101,
            0.6400694251060486,
            -0.2541583478450775,
            -0.33744171261787415,
            0.13281576335430145
        ],
        [
            0.051682740449905396,
            -0.31593602895736694,
            -0.244344562292099,
            0.01723622716963291,
            -0.00858146883547306,
            0.5408979654312134,
            0.06929226964712143,
            -0.22689637541770935
        ],
        [
            0.03681835159659386,
            0.5795068740844727,
            -0.1467994749546051,
            0.16194836795330048,
            -0.08795107901096344,
            -0.57210773229599,
            -0.6422805786132812,
            0.20636709034442902
        ],
        [
            -0.15314476191997528,
            -0.013683062046766281,
            0.3701329529285431,
            -0.12863348424434662,
            -0.513699471950531,
            -0.20247069001197815,
            -0.39477553963661194,
            0.05124750733375549
        ]
    ],
    "network.2.bias": [
        0.14701198041439056,
        0.16977199912071228,
        -0.5065842866897583,
        0.15729553997516632,
        0.4027899503707886,
        0.21413089334964752,
        0.2277744859457016,
        -0.2440917044878006
    ],
    "network.4.weight": [
        [
            0.17662522196769714,
            0.07412266731262207,
            -0.49356183409690857,
            -0.054100245237350464,
            0.7520032525062561,
            0.3296095132827759,
            -0.5418568849563599,
            -0.6194658875465393
        ],
        [
            -0.09571126103401184,
            -0.1451072245836258,
            -0.012571507133543491,
            0.43271997570991516,
            0.0018511709058657289,
            -0.07259725034236908,
            0.013193241320550442,
            -0.2666482627391815
        ]
    ],
    "network.4.bias": [
        0.08053687959909439,
        -0.0895678848028183
    ]
}
